Language model created by QuickLM on Fri Mar 27 09:38:30 EDT 2020
Copyright (c) 1996-2010 Carnegie Mellon University and Alexander I. Rudnicky

The model is in standard ARPA format, designed by Doug Paul while he was at MITRE.

The code that was used to produce this language model is available in Open Source.
Please visit http://www.speech.cs.cmu.edu/tools/ for more information

The (fixed) discount mass is 0.5. The backoffs are computed using the ratio method.
This model based on a corpus of 13 sentences and 28 words

\data\
ngram 1=28
ngram 2=44
ngram 3=38

\1-grams:
-1.0383 </s> -0.3010
-1.0383 <s> -0.2386
-2.1523 A -0.2980
-2.1523 ALBUM -0.2593
-1.6752 ARE -0.2693
-1.5502 CAN -0.2758
-2.1523 CHEMISTRY -0.2593
-2.1523 FAVORITE -0.2980
-2.1523 FUNNY -0.2593
-2.1523 HELLO -0.2593
-2.1523 HELP -0.2918
-2.1523 HI -0.2593
-2.1523 HOW -0.2918
-1.6752 IS -0.2918
-2.1523 JOKE -0.2593
-2.1523 LAZY -0.2593
-1.6752 ME -0.2525
-2.1523 MILK -0.2593
-2.1523 MUSIC -0.2593
-2.1523 NAME -0.2593
-2.1523 PASS -0.2918
-2.1523 PLAY -0.2980
-2.1523 TELL -0.2918
-2.1523 THANK -0.2758
-2.1523 THE -0.2980
-1.6752 WHAT -0.2918
-1.2492 YOU -0.2351
-1.8513 YOUR -0.2949

\2-grams:
-0.8129 <s> CAN 0.0000
-1.4150 <s> HELLO 0.0000
-1.4150 <s> HI 0.0000
-1.4150 <s> HOW 0.0000
-1.4150 <s> THANK 0.0000
-0.9379 <s> WHAT 0.0000
-1.1139 <s> YOU -0.2430
-0.3010 A JOKE 0.0000
-0.3010 ALBUM </s> -0.3010
-0.7782 ARE FUNNY 0.0000
-0.7782 ARE LAZY 0.0000
-0.7782 ARE YOU -0.2430
-0.3010 CAN YOU -0.1761
-0.3010 CHEMISTRY </s> -0.3010
-0.3010 FAVORITE ALBUM 0.0000
-0.3010 FUNNY </s> -0.3010
-0.3010 HELLO </s> -0.3010
-0.3010 HELP ME -0.2218
-0.3010 HI </s> -0.3010
-0.3010 HOW ARE -0.2218
-0.7782 IS CHEMISTRY 0.0000
-0.4771 IS YOUR 0.0000
-0.3010 JOKE </s> -0.3010
-0.3010 LAZY </s> -0.3010
-0.7782 ME </s> -0.3010
-0.7782 ME A 0.0000
-0.7782 ME THE 0.0000
-0.3010 MILK </s> -0.3010
-0.3010 MUSIC </s> -0.3010
-0.3010 NAME </s> -0.3010
-0.3010 PASS ME -0.2218
-0.3010 PLAY MUSIC 0.0000
-0.3010 TELL ME -0.2218
-0.3010 THANK YOU -0.2430
-0.3010 THE MILK 0.0000
-0.3010 WHAT IS 0.0000
-0.9031 YOU </s> -0.3010
-0.9031 YOU ARE -0.1249
-1.2041 YOU HELP 0.0000
-1.2041 YOU PASS 0.0000
-1.2041 YOU PLAY 0.0000
-1.2041 YOU TELL 0.0000
-0.6021 YOUR FAVORITE 0.0000
-0.6021 YOUR NAME 0.0000

\3-grams:
-0.3010 <s> CAN YOU
-0.3010 <s> HELLO </s>
-0.3010 <s> HI </s>
-0.3010 <s> HOW ARE
-0.3010 <s> THANK YOU
-0.3010 <s> WHAT IS
-0.3010 <s> YOU ARE
-0.3010 A JOKE </s>
-0.3010 ARE FUNNY </s>
-0.3010 ARE LAZY </s>
-0.3010 ARE YOU </s>
-0.9031 CAN YOU HELP
-0.9031 CAN YOU PASS
-0.9031 CAN YOU PLAY
-0.9031 CAN YOU TELL
-0.3010 FAVORITE ALBUM </s>
-0.3010 HELP ME </s>
-0.3010 HOW ARE YOU
-0.3010 IS CHEMISTRY </s>
-0.6021 IS YOUR FAVORITE
-0.6021 IS YOUR NAME
-0.3010 ME A JOKE
-0.3010 ME THE MILK
-0.3010 PASS ME THE
-0.3010 PLAY MUSIC </s>
-0.3010 TELL ME A
-0.3010 THANK YOU </s>
-0.3010 THE MILK </s>
-0.7782 WHAT IS CHEMISTRY
-0.4771 WHAT IS YOUR
-0.6021 YOU ARE FUNNY
-0.6021 YOU ARE LAZY
-0.3010 YOU HELP ME
-0.3010 YOU PASS ME
-0.3010 YOU PLAY MUSIC
-0.3010 YOU TELL ME
-0.3010 YOUR FAVORITE ALBUM
-0.3010 YOUR NAME </s>

\end\
